10 300
aty 0.042264 0.061394 -0.0053377 0.34215 -0.73862 0.27373 0.33457 0.13838 -0.32546 0.56311 -0.15408 0.37544 -0.24237 0.018502 0.027976 0.37313 -0.095058 0.6699 0.59952 0.036688 -0.21536 -0.16675 -0.2245 -0.04371 -0.31921 -0.30046 -0.37823 0.2564 0.032896 -0.25564 0.08896 0.39598 -0.12908 -0.53855 0.13955 -0.39111 0.2337 -0.16862 -0.11548 0.20781 -0.36539 0.23405 0.11648 -0.16158 0.12363 -0.23628 -0.22661 -0.13006 0.68935 -0.15171 0.095876 0.092701 0.079739 0.14409 -0.072352 0.099646 0.16053 -0.16761 0.62017 -0.10271 0.058081 -0.38478 0.67353 -0.19869 -0.040061 -0.48387 -0.42199 0.52987 0.29917 -0.015853 -0.15056 -0.21597 0.15452 -0.28895 0.26305 0.39784 -0.16613 0.73619 -0.049427 -0.81917 -0.40722 0.55154 -0.51457 -0.19279 0.5532 -0.4705 0.32643 -0.25502 0.34537 -0.5825 -0.13469 0.34371 -0.30957 0.26744 -0.6082 0.084998 0.29929 -0.072203 -0.014398 0.13271 -0.079343 -0.49468 0.034996 0.0064673 -0.019215 0.03977 -0.0091068 0.1597 -0.24191 -0.29153 -0.49084 0.44147 0.065657 -0.044837 -0.46145 0.27889 0.2468 0.19328 -0.40558 0.1691 -0.025924 -0.082168 -0.81576 -0.10244 0.1539 -0.23415 -0.073145 -0.35561 0.31192 -0.079429 -0.64146 -0.26627 0.34036 -0.26386 -0.19146 0.32341 -0.029035 -0.030391 -0.040317 -0.055579 -0.45527 -0.16875 -0.5038 0.36763 0.52112 0.10106 0.44324 0.31499 -0.76918 -0.24039 0.40193 0.013993 0.39061 0.21044 0.1844 -0.02549 -0.19688 0.749 -0.51188 0.021602 -0.36152 0.17881 -0.062191 -0.33616 0.21905 0.23365 0.32503 -0.017195 0.013197 0.060218 0.20847 -0.0019177 -0.21801 -0.094523 -0.37298 0.21381 0.46116 -0.024628 -0.21385 -0.20636 0.053742 0.093108 0.45264 0.048505 -0.41093 -0.19197 -0.026596 -0.4774 -0.43407 0.020609 -0.41739 0.27651 0.088415 0.064199 0.13485 -0.11133 -0.081012 0.5135 0.19628 0.28773 -0.011363 -0.28437 0.13368 -0.15866 0.37522 0.28736 0.11458 -0.3187 0.34196 -0.39297 -0.11656 -0.13544 -0.345 -0.17855 0.21342 0.17454 0.13728 -0.36969 -0.057024 -0.52001 -0.58253 0.38839 -0.74535 0.25934 0.33349 0.38541 -0.21469 -0.41441 -0.36706 0.51111 0.54252 -0.1955 0.4007 0.36761 0.11185 0.21089 0.089639 -0.13331 -0.055554 -0.071001 -0.080333 0.40246 0.22368 0.024588 0.052328 -0.30288 0.49979 0.22922 0.68004 -0.084511 0.24713 0.38447 -0.066887 0.67558 0.34521 -0.21111 -0.41464 -0.44724 -0.54309 -0.23214 0.69518 -0.089159 0.072511 -0.32437 -0.16372 -0.04981 0.090853 -0.064091 -0.26391 -0.015619 -0.43666 0.25357 -0.20966 0.609 0.10067 0.34491 -0.045816 -0.10169 -0.19576 -0.61611 0.27124 -0.13481 -0.073107 -0.14215 0.11313 -0.23754 0.23554 0.090423 -0.48166 0.13832 -0.26704 -0.13959 -0.63062 -0.11123 -0.054128 0.11954 -0.00029168 -0.04502 0.18015 -0.32335
watered -0.18044 0.23493 0.11691 -0.76216 -0.096633 0.052773 -1.6263 0.093376 0.20417 -0.41067 -0.12275 -0.34333 0.86595 0.34868 0.56315 0.32228 -0.1115 0.27467 0.14759 0.07036 0.25039 -0.4537 0.33186 -0.14029 -0.33523 -0.1264 0.092172 -0.0099438 -0.24357 -0.43202 -0.010092 0.048044 -0.40898 -0.10437 0.25664 0.12694 -0.37257 0.21251 -0.040121 -0.81551 -0.31217 0.051452 0.056656 -0.11514 0.94797 0.12383 -0.38843 -0.038304 -0.11979 -0.29211 -0.17569 -0.32551 0.26665 -0.27973 0.57395 0.24938 -0.30623 0.06733 0.32222 0.24934 0.090032 -0.0062202 -0.2831 0.83671 -0.12614 0.082593 0.36597 0.35635 -0.14808 -0.52689 -0.31969 -0.40516 0.10276 -0.31866 0.33217 -0.31623 -0.3726 0.21149 0.098974 -0.32599 0.33681 0.44437 0.38017 -0.20206 -0.69994 0.13849 0.0079097 -0.080648 -0.051948 -0.77566 0.062298 0.061031 0.29066 -0.12217 0.21001 -0.071593 -0.067399 -0.12202 0.052322 0.074985 -0.13289 -0.057903 -0.38478 0.22359 -0.16763 -0.14117 0.42012 -0.41527 -0.30323 0.27188 0.50342 -0.013008 1.1494 -0.060704 -0.32981 -0.13228 -0.13538 -0.61909 -0.49917 0.11075 -0.2078 0.086916 0.17393 0.0043917 -0.45534 0.27491 1.0398 -0.72096 -0.49892 -0.098359 -0.55464 -0.02651 0.094531 0.518 0.15682 -0.16279 0.40467 0.16076 0.54034 -0.37823 0.74107 0.32241 0.34528 0.39881 0.28807 -0.50896 -0.016765 -0.11694 0.60642 0.1492 0.62635 0.85486 -0.70298 -0.54235 -0.093034 -0.3256 -0.17862 -0.29711 -0.39205 0.65036 -0.31733 0.40656 -0.028046 -0.40133 0.10108 -0.17848 0.51676 0.23417 0.17951 0.14183 0.12393 -0.44413 -0.032768 -0.48438 0.11218 0.50133 0.00061738 0.4738 -0.17119 -0.28702 -0.037976 -0.024915 0.28795 0.48909 -0.21292 0.011349 -0.091715 0.19755 0.50336 0.18161 0.084638 -0.43912 0.14144 0.22804 0.011632 0.13088 -0.012865 0.13229 -0.50378 -0.27042 -0.14441 0.28478 -0.32529 0.14631 0.51736 -0.056817 -0.0352 0.1323 -0.81525 0.013575 -0.0041645 0.39399 0.61445 -0.20262 0.037002 -0.12304 0.054066 0.20945 -0.43118 -0.15043 -0.27537 0.1445 -0.4322 0.073731 -0.31674 0.26827 -0.63237 0.63829 0.071947 -0.53928 -0.42839 0.14239 -0.173 -0.24232 0.11102 0.13296 -0.15215 0.54349 0.06275 -0.16936 -0.14094 0.25537 -0.47475 0.17267 0.41739 -0.19852 -0.18575 -0.025105 0.069199 -0.232 0.10607 -0.71142 -0.073651 -0.037504 0.51646 -0.23738 -0.2026 0.28295 -0.14257 0.67736 0.12833 -0.35466 0.068074 -0.77079 0.50547 -0.27324 -0.53847 -0.37532 -0.27671 0.1597 0.46815 0.45669 0.0051948 -0.076335 0.092156 0.50857 -0.35576 -0.24895 -0.59357 0.20894 1.302 -0.39859 -0.026913 -0.37162 -0.19912 0.096539 -0.23245 0.17549 0.65865 -0.59829 -0.015732 -0.32189 0.27257 -0.7743 0.3849 0.18842 0.1734 -0.065981 -0.33282 0.63632
rainbow -0.15688 -0.22768 -0.19161 -0.39047 0.19881 -0.16945 -1.0572 -0.17103 0.065114 0.042981 0.72441 -0.33778 0.15644 -0.12711 0.10218 -0.4732 -0.19665 -0.10936 -0.16457 -0.0232 -0.053004 -0.34765 0.15645 -0.18708 0.65448 0.51422 -0.29593 0.27497 0.20825 0.026368 0.43515 -0.25642 -0.25412 0.35402 0.2745 -0.020223 0.19057 0.11315 0.15723 -0.57612 0.1743 0.013706 0.42468 -0.37164 -0.067055 -0.31262 -0.35772 -0.091877 0.079589 -0.37636 0.16222 -0.11941 0.39467 0.042947 -0.18206 0.41988 0.2507 -0.37375 0.81257 0.18715 0.43117 0.10955 0.006673 -0.044197 -0.42199 0.53353 -0.0085389 -0.16499 0.021156 0.70051 -0.70553 -0.18634 -0.17923 0.0097608 -0.20521 -0.30489 0.49379 0.22211 0.40639 -0.19423 -0.05983 0.57117 -0.13591 0.23893 -0.21833 -0.16609 -0.27047 0.37679 -0.0027571 -0.39232 0.093992 0.21808 0.23881 -0.12905 0.041856 -0.18093 -1.6021 -0.10847 -0.31928 -0.50963 0.22309 -0.24086 0.33465 0.15053 0.051397 -0.27216 0.10848 0.52974 0.2267 -0.050036 0.16844 -0.55083 0.60415 0.23755 -0.10906 0.83426 -0.30752 0.16243 -0.15971 -0.01335 -0.18559 -0.14158 0.010724 0.47196 -0.17349 0.6607 0.12289 -0.025335 0.37015 -0.17754 -0.2087 -0.014593 -0.063627 -0.20781 0.59908 -0.63673 0.13025 -0.48987 0.4061 0.88348 -0.07139 0.32513 0.17287 0.14998 -0.038389 -0.11352 0.41698 -0.017638 0.46159 -0.024652 0.20272 -0.028233 0.17525 -0.112 -0.20281 -0.12736 -0.052041 0.0038683 -0.060348 0.044928 -0.13352 0.72286 0.23289 0.12815 0.0070319 0.21347 -0.2641 -0.13952 0.091236 0.39469 0.051417 0.10275 0.20205 -0.30862 0.42878 0.48654 0.1988 -0.39325 0.12823 0.76226 -0.26321 -0.33648 -0.11405 0.43051 0.43223 -0.25967 0.25264 0.0074611 0.56137 0.56891 -0.28445 0.0032503 -0.36921 0.2025 0.022016 0.49395 0.4377 0.16941 -0.29156 -0.39073 -0.0992 -0.2355 -0.0017367 -0.18528 -0.1498 -0.25423 -0.39231 0.035443 0.11275 0.083337 -0.071397 0.14355 0.32395 0.475 0.14617 0.21169 0.33623 0.088159 0.3771 0.50519 0.015726 0.4373 -0.27468 -0.041772 -2.4575 -0.35871 -0.029689 -0.012904 -0.12668 -0.015285 0.32012 -0.4762 -0.34036 0.024781 -0.30362 -0.19151 0.22196 -0.38196 -0.42805 0.22236 0.21787 -0.21676 0.23957 0.53095 -0.30575 0.069536 0.090833 -0.25156 0.036659 0.38181 -1.1001 0.13177 -0.45576 0.12523 0.21001 0.6603 -0.030733 0.13365 0.043705 -0.3887 -0.39408 0.026404 0.070652 0.17728 -0.47169 0.28294 0.10772 0.10045 -0.28622 -0.084958 0.22987 0.19773 0.2739 -0.26593 -0.054906 -0.02006 0.10174 0.2124 0.16728 -0.26337 0.71597 -0.14555 -0.13425 -0.11999 0.64932 -0.12531 -0.19686 0.11293 0.025539 0.33747 -0.28148 -0.1166 0.02765 -0.39515 0.38082 -0.059109 -0.44851 -0.11359 0.26343 -0.10387
iles 0.31745 0.074973 0.33697 0.08017 -0.29712 0.35238 0.10672 -0.66608 0.41306 0.32487 0.5789 1.1199 0.045878 -0.28217 -0.051933 -0.36835 0.64916 0.68224 0.62803 -0.3138 0.16839 -0.53046 0.19557 0.027959 0.25782 -0.48184 -0.62937 -0.31645 0.35097 -0.11596 -0.11826 -0.039713 -0.74434 -0.20629 -0.21943 0.2833 0.23546 -0.087997 0.18712 0.16351 -0.18499 -0.10291 -0.15752 -0.17122 0.60385 -0.34324 0.40693 -0.29898 -0.26223 -0.085095 0.0096922 0.14505 -0.091267 0.14023 -0.13243 0.16908 0.14338 0.96514 0.45855 -0.25996 -0.49922 0.052633 0.014983 -0.03117 0.028209 -0.72994 0.39736 -0.10753 0.10582 0.065825 -0.40666 -0.38192 -0.040506 -0.091293 0.18754 -0.086629 -0.29576 -0.17502 -0.20589 -0.94439 -0.83063 -0.23603 0.41185 -0.058865 -0.23292 -0.28437 -0.43928 -0.94628 -0.26776 0.42926 0.086151 0.48387 0.082235 0.16463 -0.085217 0.20018 0.18769 -0.50119 0.50739 0.237 -0.41081 -0.21964 -0.14238 -0.2541 -0.49779 0.12784 -0.48519 0.31324 -0.79557 0.3069 -0.5004 -0.33597 -0.41902 0.46845 -0.090472 -0.44007 -0.013225 0.39135 0.24213 0.19258 -0.34744 0.0025339 0.001128 0.34819 -0.072588 -0.27938 -0.26891 -0.019561 -0.44052 0.24978 0.21075 -0.082166 -0.46376 -0.29741 0.18245 0.031339 0.32953 -0.40708 0.88033 0.35139 0.12745 -0.93721 -0.25251 0.24798 -0.29416 -0.63655 -0.042505 -0.32464 -0.2906 -0.3225 -0.62633 0.077427 0.30135 0.1828 0.19643 0.069938 -0.99077 0.88634 0.088196 -0.00057206 0.23143 0.86348 0.72516 -0.68274 -0.29044 -0.30603 0.011117 0.46976 -0.18375 -0.24099 0.214 0.25537 0.21665 0.12045 0.1289 0.73928 0.024002 -0.23941 0.56873 -0.27211 0.55303 0.86357 -0.29117 -0.31117 -0.57667 -0.19971 0.25421 0.23784 0.00096312 0.082243 0.19361 -0.65033 -0.21675 -0.40835 -0.68282 -0.65367 0.18287 -0.335 0.09809 -0.45856 -0.3657 0.031464 0.2487 0.29162 -0.2326 -0.41257 0.078209 -0.23486 0.22428 -0.050694 0.14269 0.7202 -1.4798 -0.44693 -0.58034 0.24965 -0.21911 -0.22376 0.49916 0.346 -0.48459 0.19177 -0.12115 -0.50388 -0.51587 -0.10477 -0.28997 0.081768 0.21456 0.022745 0.45322 0.18332 0.40875 0.10972 0.22706 -0.055715 0.65112 -0.60688 0.34806 0.37719 0.69358 -0.2866 -0.17021 -0.14319 0.021072 0.10829 -0.19125 0.42666 -0.00028879 0.077689 0.59246 -0.31214 -0.25642 0.55236 -0.87845 0.30832 0.12287 -0.47642 0.16245 0.40848 0.25762 0.30856 -0.020329 -0.32268 -0.065835 0.08589 -0.020093 -0.023863 0.16274 0.20033 0.056815 -0.17272 -0.23627 -0.17949 -0.45477 0.2917 -0.27529 -0.37273 -0.42067 -0.001803 0.18882 0.42185 0.16676 0.48413 -0.47521 0.74883 0.13722 0.51154 -0.43755 -0.13728 0.16195 -0.29203 0.29336 -0.23995 -0.073718 0.47923 0.26808 0.27695 0.21301 -0.12822
broadcastings -0.58193 -0.18719 -0.18914 0.1629 -0.016015 0.44304 0.27538 -0.7475 -0.25752 0.35065 0.35301 -0.21991 0.098287 -0.0060252 0.17659 0.14025 0.38794 -0.020661 0.061402 0.17866 -0.11629 0.037258 0.28791 -0.20793 -0.18146 -0.047426 -0.11139 0.26064 0.44734 -0.28744 -0.37451 -0.011354 -0.18673 -0.31878 -0.34466 0.045614 0.50689 -0.17979 -0.21706 -0.51475 0.042921 -0.26584 0.11439 -0.26557 -0.69794 0.38429 -0.020201 -0.61667 0.4528 0.11238 -0.028467 -0.16475 0.30518 -0.4454 -0.020882 0.21357 0.26467 -0.35454 0.6319 -0.19435 -0.4185 0.25977 0.19919 -0.37523 0.041501 -0.42441 -0.06316 0.27102 -0.038375 0.041435 0.33632 -0.44377 0.11683 0.244 0.27709 -0.13288 -0.38785 -0.31749 0.12592 -0.060971 0.24003 0.19427 0.21276 0.091296 -0.11613 0.11186 -0.34088 0.066822 0.065708 -0.23421 0.33519 -0.15644 -0.038819 -0.13529 -0.47199 -0.34826 0.27825 0.031691 0.42548 -0.29332 -0.44795 -0.24798 -0.05419 0.099605 -0.19564 -0.41912 0.21023 -0.13795 0.1588 -0.10726 0.060284 0.038692 0.027939 0.037292 0.23294 -0.15731 0.081682 -0.055956 0.18335 -0.0096958 0.12139 0.17431 -0.096584 -0.28917 0.053397 0.11185 0.16491 0.141 -0.30277 0.016359 -0.045173 0.2154 0.43576 0.26894 -0.24688 0.44293 -0.15588 0.39748 0.5738 -0.4429 0.19041 0.26062 0.35451 0.29391 0.13392 0.098403 -0.07756 -0.11752 0.1407 0.023934 -0.23588 -0.39585 -0.2567 -0.29232 0.068386 -0.032022 0.19399 -0.24148 -0.17861 -0.20115 0.14076 -0.077895 -0.22244 0.076684 0.0040474 -0.33931 -0.13985 -0.092186 0.047737 0.32283 -0.36426 0.42694 -0.1551 -0.089705 -0.223 0.36389 0.18075 -0.02243 -0.51358 -0.3185 -0.016086 -0.68488 0.0097976 0.34964 -0.28817 -0.39535 -0.19737 0.16263 0.095737 -0.48377 -0.0058977 0.24718 -0.14387 0.38419 -0.21694 0.2056 0.17057 0.031856 0.31434 -0.050053 -0.021221 0.12132 0.27611 -0.078126 0.69665 0.027491 0.047583 0.15528 -0.69038 -0.091762 -0.44865 0.48472 -0.088851 0.081696 0.08663 -0.019822 0.051242 0.37613 -0.042679 -0.058807 0.0073042 -0.05949 0.0016375 0.085474 0.50284 0.23768 0.1993 0.18557 0.061975 -0.14591 -0.018586 0.14951 0.42199 -0.51544 -0.1421 0.18924 -0.23638 -0.21327 -0.079947 0.39044 -0.024461 -0.46055 -9.2132e-05 -0.28415 -0.044767 -0.39022 -0.034552 -0.038499 0.088892 0.0033362 0.049609 0.28634 0.06649 0.038925 -0.085746 0.085102 -0.022176 -0.5795 -0.05261 -0.29414 0.027756 0.16734 -0.088752 0.14345 -0.43764 -0.25111 -0.58998 0.11312 0.095387 -0.58851 -0.11729 0.020904 0.13877 -0.069701 -0.12556 -0.21415 0.18181 0.22014 0.18349 0.34038 -0.45575 -0.50348 -0.30254 -0.015509 -0.20178 0.066685 -0.15918 -0.065499 -0.052558 0.22002 0.13502 -0.047025 -0.065263 0.13875 0.10518 -0.20997 0.38603 -0.59195 -0.59203 0.34941
finitely 0.11586 0.27328 -0.32632 0.51281 0.60693 0.37156 -0.75871 0.39787 -0.15713 0.3494 -0.45174 -0.23518 -0.48825 0.82451 0.51166 -0.48809 0.097771 -0.38283 0.89265 -0.49502 -0.40668 0.19893 -0.58766 0.12772 0.2946 0.63252 0.05529 -0.86281 0.01544 -0.13518 -0.012796 -0.21577 -0.43477 -0.34086 -0.39534 -0.1247 -0.61149 0.29123 -0.4461 -0.51583 -1.2669 -0.54102 -0.14442 -0.31958 -0.65941 -0.85814 0.60263 0.0010528 0.38009 -0.48647 -0.74391 0.2964 -0.11791 -0.54761 -0.74429 -0.39429 -0.57467 0.020638 -0.035968 0.88946 -0.31232 -0.1485 0.28463 -0.29629 0.25717 -0.14735 -0.25956 0.66947 -0.30567 0.47948 -0.037902 0.28029 0.17123 0.54383 -0.32639 -0.42877 0.42827 0.32565 0.96822 0.43037 -0.47977 -0.12559 -0.45962 -0.13276 -0.4368 0.35403 -0.13379 0.38366 -0.24465 -0.29008 0.5232 0.50319 0.34798 0.84893 0.20136 0.11612 0.38668 -0.42637 1.086 -0.16464 -0.7146 -0.40645 -0.044281 -0.10426 -0.083705 0.048831 0.12559 -0.19915 -0.043423 -1.1783 -0.5088 0.44187 0.84584 -0.16115 -0.029828 0.047946 0.32521 -0.25485 -0.19846 -1.1855 0.15913 -0.53189 0.27717 -0.15615 0.36662 -0.88082 0.1728 -0.18471 0.18752 0.25359 -0.35494 -0.35299 -0.59379 0.12686 0.42628 0.079325 -0.71144 0.14792 0.21514 -0.3438 0.55095 0.65952 0.032349 -0.2978 -0.43209 -0.74645 0.20469 -0.69305 0.075137 -0.089958 -0.02649 -0.042993 0.30543 -0.53181 0.30054 -0.44382 1.1043 -0.46034 0.19415 0.44057 0.37264 -0.34638 0.28028 -0.13237 -0.40696 -0.49229 -0.099571 -0.1446 0.63166 0.25841 0.024805 -0.35489 -0.14987 0.8575 -0.10483 0.67258 0.78129 -0.62743 0.63805 -0.031554 0.19762 -0.2403 0.73166 -0.43762 -0.42224 -0.85206 -0.48587 0.62832 0.43347 0.072243 0.32179 0.67166 -0.10901 -0.2537 0.22705 0.10057 -0.65421 0.62675 -1.1038 -1.0083 0.38229 0.11094 0.034999 0.11125 0.32478 0.20381 -0.1777 -0.38313 -0.54563 0.43071 -0.028517 0.39339 -0.24669 -0.56817 -0.13375 0.21711 -0.54115 -0.48322 -0.01917 -0.36874 -0.23165 -0.74139 -0.44114 0.15011 0.58289 -0.46976 -0.22691 0.26359 -0.18334 -0.12267 -0.039692 0.18978 -0.13688 -0.1172 0.30177 -0.72721 0.43009 -0.877 0.28995 0.4841 -0.0079758 0.061381 0.44966 -0.31217 0.35845 -0.11991 0.073262 0.57979 0.16238 -0.44699 -0.58094 -0.23674 -0.38458 -0.16047 0.14706 -0.47372 -0.55419 -0.27849 0.16564 1.4081 0.095497 0.62472 -0.27148 -0.23858 -0.31255 -0.75726 -0.38825 0.32706 -0.25615 -0.19668 0.12845 0.60821 -0.053683 0.17323 -0.28563 0.087659 0.51308 0.21589 0.39238 -0.41537 0.29687 -0.056825 -0.79402 0.73711 0.49231 0.92292 0.81389 0.43145 0.91152 0.55065 0.17455 -0.36035 0.36784 -0.058602 -0.18867 0.70555 0.17236 0.19949 0.93936 0.6624
hamper -0.017998 0.0017265 0.187 0.25617 0.84553 0.031878 -1.2794 -0.012597 0.23537 -0.094645 -0.15899 -0.059887 0.24386 -0.21333 -0.21949 0.1867 -0.42683 0.47036 0.45936 0.27825 -0.38262 -0.39633 -0.054833 0.72798 -0.054929 0.5542 0.29634 0.42632 0.92805 -0.18686 -0.028729 0.1462 0.38018 0.59497 0.065667 -0.21992 -0.27389 0.078475 -0.033433 -0.21097 0.28959 0.2824 0.1678 0.3597 0.3163 -0.026263 -0.19879 -0.28401 -0.193 -0.62174 -0.0077149 0.48774 0.17162 0.76932 -0.0051378 -0.30495 0.24472 0.11317 0.30351 -0.36731 -0.31596 -0.38622 0.57869 0.62493 0.037461 0.59154 0.057638 -0.086261 0.60154 0.0055789 -0.18597 0.18089 0.42274 0.28747 -0.14035 0.42833 -0.15361 0.17485 0.0018452 0.60112 0.13696 0.23694 -0.24759 0.57962 -0.022944 0.2996 0.48875 0.82263 0.033051 -0.20013 0.43232 0.086537 0.34319 -0.026089 -0.51515 -0.85918 -0.92894 -0.29825 0.26282 0.21727 0.20316 -0.31002 0.79435 0.13293 0.27075 0.086532 -0.5274 -0.21217 0.61055 0.40132 0.21133 -0.71207 0.25309 -0.51766 0.24198 -0.43806 -0.27063 0.13497 -0.29594 -0.20993 -0.37016 -0.12529 0.26837 0.01809 -0.041532 0.95878 0.50815 0.28696 0.5309 0.13501 0.30594 0.12961 -0.50497 0.11548 -0.66087 -0.67294 -0.3021 -0.11485 -0.14121 -0.15592 0.11768 -0.40598 0.16808 -0.42584 0.84496 0.95407 0.11889 0.0457 0.87559 0.31489 -0.43301 0.44497 -0.43243 0.0098379 -0.20113 0.49446 0.41678 0.12738 0.39884 -0.39594 0.63487 0.096122 0.16099 -0.33563 -0.5905 -0.27615 0.36231 -0.13895 0.60716 0.0053863 0.403 -0.43096 -0.30959 0.08285 0.35264 0.30467 0.35537 0.18844 0.059009 -0.14916 0.35822 -0.1974 0.16425 -0.38036 0.22957 -0.74274 -0.25507 -0.0020699 0.42774 -0.18712 -0.12164 -0.45492 -0.15062 -0.29815 0.88409 0.16119 -0.24439 -0.23216 0.26294 0.44758 0.09654 0.45576 0.14443 -0.38519 0.17971 0.10207 0.036307 -0.17453 -0.58708 -0.11986 0.18644 0.03723 -0.38288 0.64894 -0.54762 -0.16844 -0.04386 -0.33839 0.046678 0.21442 -0.0068715 -0.11045 0.97352 -0.080385 -0.63861 0.31903 -0.46949 -0.074575 0.4574 0.045758 0.63395 -0.53617 -0.53752 -0.00074424 -0.58085 0.25532 0.32105 -0.75281 -0.071291 0.22763 0.3009 -0.052397 -0.22308 0.51427 -0.15792 -0.055286 -0.039894 0.44206 0.80689 0.019492 -0.21055 -0.51363 0.48048 0.090242 0.063934 -0.31257 0.19895 -0.18096 0.039233 -0.080535 0.35861 0.057912 0.58479 -0.19976 0.62338 -0.10363 0.27967 -0.56388 -0.12299 -0.093296 -0.40554 -0.3449 -0.40137 -0.027482 -0.11363 -0.13025 -0.26474 0.49427 0.10226 0.0097072 0.50047 0.1068 0.21277 0.72843 0.54183 -0.35949 -0.30517 0.57491 0.49909 -0.49784 -0.090431 -0.44049 -0.33878 0.057824 0.20604 0.55334 -0.086892 0.34871 0.25073 0.14168
fictionalizes 0.33293 0.27077 0.12604 0.30435 -0.32596 -0.021838 0.34638 0.20922 0.41474 0.54321 -0.062302 -0.17319 0.39695 0.095637 0.21212 -0.40225 -0.016135 -0.062894 0.24113 0.28508 -0.085804 -0.10706 -0.009146 -0.17252 -0.14576 0.20692 0.010274 -0.059524 0.39629 -0.18833 0.3066 -0.19061 0.39748 -0.31666 -0.40142 0.066517 0.64953 0.65465 0.025565 0.207 -0.14077 0.066621 -0.22465 -0.059205 -0.22049 0.28143 0.12718 0.056248 -0.58229 0.24543 -0.11394 -0.11093 0.015207 -0.098626 0.020259 -0.31028 0.59181 0.4392 0.18207 -0.12328 0.52013 0.22882 0.23352 0.3172 -0.36881 -0.14031 0.28037 -0.01815 0.15107 0.035265 0.44038 0.55553 0.16344 -0.068629 -0.13872 -0.014761 -0.091556 -0.054369 -0.3613 -0.33553 -0.85615 -0.012958 -0.27036 0.61469 -0.065006 -0.061803 -0.65118 -0.056631 0.032709 -0.22817 0.44659 0.87819 0.22027 -0.34896 -0.54642 0.85822 0.77158 -0.056987 0.23657 -0.57472 0.20167 -0.27307 0.14199 -0.25032 -0.37664 -0.10758 0.20849 -0.13561 0.5349 0.14505 0.028234 0.37278 -0.2246 -0.25329 0.37781 0.097109 -0.21291 0.22032 0.20998 -0.014904 0.27038 -0.33296 0.37777 -0.3651 -0.32911 0.47699 0.16778 -0.18261 0.21797 -0.22385 -0.43728 -0.16535 0.33659 0.23319 0.17029 -0.0037614 0.55059 -0.38547 0.059594 -0.45694 0.018767 -0.10682 0.078938 0.33293 0.23629 0.040171 0.044989 -0.24597 -0.086235 0.18231 0.22136 -0.19489 0.21413 -0.13706 0.16644 -0.362 0.13156 -0.069707 -0.27314 0.18171 0.60516 0.19213 -0.34097 -0.18605 -0.2107 0.26938 -0.034252 -0.088898 -0.45589 0.23591 -0.044398 -0.23619 -0.095513 -0.28601 -0.27705 -0.12494 0.26659 0.22546 -0.15282 -0.13014 0.027485 -0.12713 0.049364 0.05929 0.06615 -0.22569 -0.30426 -0.018738 0.21064 0.19584 -0.49162 0.075607 -0.19301 -0.43888 -0.28397 0.30799 -0.35162 0.26798 0.40388 0.10166 -0.20311 0.561 -0.2956 0.29696 0.25684 0.01474 0.51261 -0.23304 -0.020577 -0.18631 0.37268 0.16916 -0.60209 -0.37959 0.0035963 0.27105 0.33936 -0.039538 -0.16999 0.38539 -0.090054 -0.096612 0.4185 -0.17795 0.83788 0.085792 0.026452 0.36256 -0.014187 -0.41846 -0.40343 -0.28542 0.19061 -0.28311 -0.23838 -0.10862 0.26454 -0.28568 0.13255 0.31588 0.10741 -0.43525 0.10358 0.051465 0.53028 -0.11203 -0.55769 -0.13374 -0.18075 -0.39238 0.077555 -0.19572 -0.037728 0.020575 -0.18307 -0.10468 -0.046153 -0.013417 -0.24116 0.18289 0.51576 0.16264 0.13132 0.29025 0.13874 -0.19109 -0.34365 0.20263 -0.14732 -0.32978 -0.0433 0.25151 0.40505 -0.25386 0.18632 0.0086635 -0.020863 -0.24763 -0.36206 -0.48298 -0.18745 0.12379 0.12527 -0.0093212 0.20374 -0.35535 -0.41028 0.2086 -0.015555 0.025156 -0.16706 -0.5681 -0.092279 0.10696 0.19966 0.3375 0.9341 -0.008675 0.14176 0.21469
farmhand 0.10056 0.027006 -0.36481 0.29852 0.045397 0.1357 0.21601 -0.29145 -0.056009 -0.59742 -0.24258 0.38564 0.41974 -0.081837 0.47404 -0.18907 0.46582 -0.1047 -0.22796 -0.0019635 -0.14436 0.33958 -0.1284 -0.38425 -0.38461 -0.4136 0.45702 -0.37738 0.12944 -0.21716 -0.30487 -0.092873 0.015427 -0.33669 -0.19292 0.01025 -0.15494 0.19716 -0.24042 -0.078672 0.082638 0.25874 0.32142 -0.0052331 -0.42827 -0.35488 0.75078 0.2118 0.31915 0.40038 0.50677 -0.20627 -0.092253 -0.078239 0.40646 -0.15056 -0.23773 0.42455 -0.00067493 -0.082047 -0.21512 -0.072031 0.13591 0.15868 0.052915 -0.32907 0.30379 0.06181 0.17921 -0.1881 0.09142 -0.090468 -0.03973 0.11339 0.12774 0.23038 0.32901 2.4123e-05 0.84429 -0.0094653 0.13354 0.35133 -0.38441 0.13352 0.018352 0.075693 -0.21146 0.01918 0.065947 -0.037248 0.26648 0.10429 -0.034847 -0.40674 -0.16044 -0.17993 0.44632 -0.66127 -0.22248 0.33548 0.16801 -0.031537 -0.30971 0.28992 0.21578 -0.15869 0.55669 0.010008 -0.24033 0.040587 -0.14252 0.26138 0.20234 0.13764 -0.0003605 0.01536 0.11123 0.44158 0.27431 0.14752 -0.11825 0.071971 -0.10876 -0.34975 0.16994 -0.25562 0.182 -0.11901 -0.46346 -0.0071368 0.08725 -0.14124 0.70299 -0.01267 -0.073926 -0.22798 0.16223 0.16096 0.35292 -0.33768 0.24431 -0.4583 -0.092795 -0.25171 -0.82806 0.2755 0.040294 0.15376 0.83626 0.41353 -0.12478 0.3376 -0.10725 -0.25816 -0.043283 -0.11663 0.1189 0.082028 -0.19392 -0.3055 -0.22849 -0.0011727 -0.44392 -0.48218 -0.024933 -0.43208 -0.37474 -0.58556 0.10637 -0.32455 0.097269 -0.33238 -0.19357 0.04042 -0.27337 0.0054962 -0.01023 -0.24312 -0.23313 0.047491 -0.13764 -0.71063 0.28918 -0.52399 0.18092 -0.45707 0.1601 0.016509 0.034013 -0.19231 -0.098252 0.061187 0.32684 0.020221 -0.24018 -0.36552 -0.1928 0.34403 0.30887 -0.0492 -0.22699 0.25302 -0.41298 0.86737 -0.094776 0.047384 -0.11984 0.18489 0.71094 0.32309 -0.028997 0.17566 -0.011329 0.0020192 -0.36293 -0.35807 0.049033 0.17803 -0.047391 0.4268 0.17433 0.20161 -0.14122 0.55996 0.20672 -0.10064 -0.1008 0.1288 -0.64581 0.16929 0.013098 -0.11197 0.043219 0.21781 0.47177 0.014992 0.42466 -0.46122 0.51823 0.30947 0.0074551 0.042892 -0.3348 0.28664 -0.089668 0.0096484 0.031155 0.017285 -0.29308 0.55157 0.46824 -0.37133 0.16935 0.13799 0.45575 -0.051913 -0.057417 0.19523 0.25694 0.4195 0.20325 -0.16676 0.25344 -0.17188 -0.43857 0.10049 0.055333 0.21904 0.13387 -0.013049 0.35467 -0.31015 0.19082 -0.2043 0.50514 -0.025246 -0.15306 0.35928 0.0086222 0.26808 0.24567 -0.23116 -0.44449 0.12122 -0.14439 -0.2591 0.35359 -0.35289 -0.10843 0.22072 -0.15636 0.14572 -0.30659 0.013582 -0.20214 -0.43704 -0.45032 -0.35176 0.22261 -0.47711
outrigger 0.71176 0.35749 0.53684 -0.26624 -0.21553 -0.85236 0.64909 0.17538 -0.25244 0.046113 0.49641 -0.22898 -0.24695 0.21101 0.13572 -0.0067954 -0.10318 -0.13727 0.15889 0.2561 0.055695 -0.41995 -0.21136 -0.23322 0.43068 -0.07085 0.30961 -0.6388 0.12564 0.53405 -0.23948 -0.29695 -0.068162 -0.43655 0.13991 -0.17014 -0.18238 -0.45973 0.29143 0.69726 0.082488 -0.40715 0.038363 -0.48029 -0.31241 -0.24226 -0.3991 -0.23344 0.07761 -0.11556 0.96439 -0.27297 -0.61163 -0.0081251 0.48145 -0.21959 0.23791 -0.26392 -0.040972 -0.38262 0.79308 -0.0081882 -0.36225 -0.26142 -0.20886 -0.067108 0.081533 0.32928 -0.60452 0.13704 -0.46418 0.19189 0.50649 -0.24959 -0.37221 -0.89986 0.11468 0.37984 0.090018 -0.036784 -0.22763 0.22181 0.69713 -0.1385 0.26117 0.67553 0.96259 -0.41166 -0.62646 0.42377 0.010559 -0.33888 -0.19302 -0.10096 -0.051282 -0.60757 -0.56801 -0.14509 0.024964 -0.055337 -0.35988 0.36554 0.52437 -0.23925 0.48533 -0.30347 -0.81704 -0.78432 0.42191 -0.18328 -0.10584 -0.33686 -0.053415 0.20961 0.032727 0.2311 -0.033829 -0.3318 0.072339 -0.19285 0.34844 -0.011854 0.078207 -0.5877 0.53937 0.015085 -0.087595 0.55017 -0.30478 0.033082 0.034514 0.022267 0.39108 -0.15003 -0.32222 0.35188 -0.35337 -0.014549 0.63286 0.21603 0.65592 -0.014605 0.30269 0.022584 -0.31297 0.58222 0.16242 0.52268 -0.41744 -1.0813 -0.24718 0.41005 -0.21886 -0.035199 0.43657 0.48266 -0.99359 -0.067297 -0.97972 -0.52253 0.17616 -0.28126 0.050739 -0.2294 0.2295 -0.32739 -0.3722 0.18228 0.40172 -0.20258 0.11625 0.090276 -0.897 -0.26758 0.3112 0.13351 0.093706 0.54825 1.0106 0.95966 0.17744 -0.0117 -0.22581 0.11732 0.55195 0.67785 0.29924 -0.2135 -0.13179 -0.32325 -0.42537 -0.2933 -0.12715 0.25328 -1.1791 0.39935 0.34769 0.48747 0.15236 -0.389 0.2608 -0.48922 -0.60781 -0.18597 -0.14142 -0.064057 0.013275 0.0014715 0.13115 -0.0015518 -0.13906 0.80511 -0.0044572 0.31094 0.78901 1.0812 -0.087921 0.68467 0.35911 0.040237 -0.32359 0.29337 0.64922 0.1153 -0.7107 -0.21908 -0.0765 -0.60556 0.35887 0.14641 0.1172 0.38589 -0.2792 0.18101 0.23509 0.73589 -0.24509 0.37034 -0.30268 0.77449 0.29169 -0.47789 0.47691 0.12591 -0.4432 -0.15654 0.054427 -0.48316 0.1097 0.2191 -0.44017 -0.21319 -0.10039 0.099025 -0.17604 0.25589 0.27857 -0.50886 0.18286 -0.15726 -0.00097911 -0.34546 0.33034 0.50994 0.12137 0.3099 -0.22681 0.33077 -0.09221 -0.080914 0.11341 -0.54813 -0.40926 0.40102 0.22924 -0.50901 -0.11222 0.44921 0.085391 -0.12559 0.10259 -0.2077 -0.32357 0.081199 -0.020183 0.70087 -0.62237 -0.16734 -0.16143 -0.14082 -0.44148 0.38087 -0.20886 0.2622 -0.58195 0.34023 -0.15952 0.31684 0.38046 -0.23549
