10 300
aty 0.083496094 0.04248047 0.08496094 -0.06347656 0.072265625 -0.041259766 -0.045166016 -0.13769531 -0.078125 0.07421875 -0.023071289 -0.028198242 -0.08203125 -0.048828125 -0.026123047 -0.024169922 -0.026245117 0.19238281 0.03125 0.013916016 -0.032714844 0.028320312 0.13964844 -0.0390625 -0.03955078 -0.04711914 -0.037841797 0.06225586 -0.09326172 0.021118164 -0.046142578 0.06933594 -0.060058594 -0.08691406 0.072753906 -0.07470703 -0.053955078 0.15820312 0.07128906 -0.002380371 0.004486084 -0.087402344 -0.039794922 0.0035247803 0.076660156 -0.021240234 -0.048339844 0.027709961 -0.071777344 -0.047851562 -0.028930664 0.07861328 0.048828125 0.014160156 -0.00289917 0.07519531 -0.06933594 -0.024169922 -0.02746582 -0.030029297 -0.08300781 -0.0075683594 -0.03930664 -0.020996094 -0.010070801 -0.1328125 0.017578125 -0.028564453 -0.029785156 0.00982666 0.095214844 0.042236328 0.029296875 -0.018310547 -0.001663208 -0.036132812 -0.07324219 -0.076171875 0.019165039 -0.106933594 -0.03930664 -0.13476562 0.05883789 0.049316406 -0.0087890625 -0.010437012 0.10107422 0.06738281 -0.026855469 0.08935547 0.0062561035 -0.01171875 0.03466797 -0.03515625 -0.041015625 0.051513672 0.00060272217 -0.10595703 0.032714844 -0.06591797 -0.016601562 0.04248047 -0.033203125 0.014038086 -0.053222656 -0.045166016 0.05493164 -0.043945312 -0.08300781 0.040527344 0.0625 0.002090454 0.0625 -0.010925293 -0.05029297 0.01586914 0.0044555664 -0.0008163452 0.037109375 -0.091796875 0.06738281 0.002456665 0.022338867 -0.014221191 0.0859375 0.016113281 -0.087402344 -0.087402344 0.039794922 0.011352539 0.02709961 -0.0017547607 -0.009216309 -0.01361084 -0.11425781 0.006011963 0.034179688 0.033447266 -0.11279297 0.064453125 0.041748047 0.055419922 0.140625 0.022094727 -0.03100586 0.08154297 -0.012390137 -0.04345703 -0.0076904297 -0.0019836426 0.084472656 -0.041259766 0.020507812 -0.091796875 -0.011169434 -0.06982422 -0.029052734 -0.014465332 -0.06591797 -0.07128906 -0.023071289 0.064453125 -0.017578125 -0.04321289 -0.036376953 0.047607422 0.024291992 -0.030029297 -0.18554688 -0.018432617 -0.08251953 0.041259766 0.056152344 -0.010559082 -0.049560547 -0.007659912 0.12695312 -0.023803711 0.052734375 -0.08886719 -0.034179688 -0.0021514893 -0.091796875 0.0029907227 -0.003036499 -0.033935547 0.13476562 -0.014099121 0.04321289 -0.0019302368 -0.039794922 0.0027160645 -0.022460938 0.06298828 0.026245117 0.0015869141 -0.035888672 0.07910156 0.006011963 0.021850586 0.09277344 0.020141602 -0.053222656 -0.021972656 -0.026611328 -0.055419922 -0.032470703 0.076171875 -0.049316406 0.091308594 0.04272461 -0.017211914 -0.06298828 -0.03930664 -0.01361084 0.071777344 0.11376953 -0.095703125 -0.025146484 -0.0017547607 -0.009338379 0.011047363 0.040283203 0.063964844 0.014526367 -0.051513672 -0.08251953 0.06347656 -0.009643555 -0.06347656 0.013061523 -0.028930664 -0.083496094 -0.015075684 0.0078125 -0.09375 -0.024169922 0.15039062 0.15136719 0.020507812 0.14355469 0.021850586 0.060302734 -0.017456055 0.008850098 0.11376953 -0.00491333 0.036132812 -0.018798828 -0.14453125 0.03881836 0.14746094 0.045654297 0.017333984 0.008361816 0.03881836 0.109375 -0.00037574768 -0.029907227 0.02709961 0.016967773 -0.0048828125 0.11767578 -0.0014801025 0.075683594 0.017089844 0.017578125 0.026123047 0.04345703 0.064941406 0.03564453 -0.06640625 0.019042969 0.0013580322 0.03515625 -0.057617188 -0.011779785 0.032714844 -0.01373291 -0.087402344 -0.0859375 0.010925293 -0.07910156 -0.05102539 0.096191406 0.072265625 0.00051116943 0.08935547 -0.020751953 0.001876831 -0.026855469 -0.001373291 -0.030273438 0.111816406 -0.09667969 -0.06542969 0.0037078857 0.0043640137 0.059814453 -0.040771484
watered 0.00091171265 0.28125 0.40625 0.20898438 -0.27539062 -0.03173828 0.023071289 0.09765625 -0.022338867 0.23730469 -0.107910156 -0.15722656 -0.2109375 0.20410156 -0.11621094 -0.032226562 0.4140625 -0.08935547 0.15625 -0.29101562 0.38671875 0.43164062 -0.06689453 -0.28710938 0.20507812 -0.08300781 -0.18261719 0.052246094 -0.04321289 -0.14257812 -0.24707031 -0.10644531 0.038085938 0.0051574707 -0.1015625 -0.20605469 0.12695312 -0.17285156 0.23339844 0.28710938 0.22460938 -0.122558594 0.16308594 0.12060547 -0.09277344 -0.099121094 -0.22167969 0.033691406 0.14355469 -0.21582031 -0.055908203 -0.071777344 -0.015991211 -0.24511719 0.453125 0.19726562 0.071777344 -0.22753906 0.20214844 0.45703125 0.007293701 -0.114746094 0.040039062 0.029785156 0.44921875 -0.23730469 -0.10205078 0.063964844 0.25 -0.12988281 -0.095214844 0.11816406 -0.265625 0.21289062 -0.19042969 0.009521484 0.4296875 0.23144531 0.47851562 0.12109375 -0.049072266 -0.057373047 -0.032226562 0.06347656 -0.014099121 0.05053711 0.08154297 0.24804688 0.12402344 0.10839844 0.05102539 0.1640625 -0.043701172 -0.27148438 0.013061523 -0.034423828 -0.28125 -0.27539062 -0.107421875 -0.28320312 -0.13671875 -0.059814453 0.24707031 -0.11425781 -0.2578125 -0.091796875 -0.09423828 -0.072265625 -0.20019531 -0.48632812 -0.038085938 0.045898438 -0.18945312 -0.20898438 0.20898438 -0.38671875 0.30664062 0.09765625 0.07714844 0.16992188 -0.18066406 -0.06347656 0.26953125 0.07128906 0.07470703 -0.100097656 0.20507812 -0.09375 0.12890625 -0.35351562 0.017944336 0.14648438 -0.061035156 -0.17871094 -0.41796875 0.34375 -0.14550781 -0.103515625 -0.022705078 -0.2734375 0.029541016 -0.26953125 0.25585938 -0.29101562 0.22753906 0.18554688 -0.03515625 -0.140625 0.05493164 -0.123046875 0.033203125 -0.044433594 -0.014343262 0.024902344 -0.21972656 -0.23828125 -0.0001783371 -0.51953125 -0.31445312 0.18457031 0.15429688 -0.041015625 -0.12597656 0.123046875 -0.06738281 -0.39257812 0.035888672 0.15722656 0.09716797 -0.15332031 -0.21777344 0.083496094 -0.10644531 0.0045166016 0.30273438 -0.110839844 -0.09082031 -0.037597656 -0.1875 0.005645752 -0.2578125 0.004760742 0.12890625 0.31835938 -0.099609375 0.09082031 -0.24121094 0.14257812 -0.28710938 0.0038146973 0.11230469 -0.14160156 -0.09716797 0.203125 0.27734375 0.022216797 0.008056641 -0.33398438 0.16699219 0.0107421875 0.104003906 -0.01171875 -0.064453125 -0.091796875 0.26757812 -0.011413574 0.06347656 -0.012023926 0.0053710938 -0.041748047 0.017700195 0.048583984 0.28710938 0.051513672 0.016113281 0.06298828 -0.056396484 -0.30664062 0.19238281 -0.057373047 -0.064453125 -0.016479492 -0.09667969 -0.064941406 0.34179688 -0.061523438 0.068847656 0.07373047 0.15136719 0.27148438 -0.33398438 -0.01159668 0.14355469 0.19824219 -0.06640625 -0.24609375 0.059326172 -0.26171875 0.20996094 -0.10546875 -0.088378906 0.05053711 -0.11767578 -0.095703125 0.31640625 0.17089844 -0.032226562 0.10449219 -0.35546875 0.22363281 -0.17675781 0.2421875 -0.111328125 -0.071777344 0.22265625 0.21484375 -0.3984375 -0.37304688 -0.20800781 0.06201172 -0.06225586 0.20898438 -0.123535156 0.13964844 0.37695312 -0.20019531 -0.48242188 -0.32617188 -0.20703125 -0.11376953 -0.08691406 0.15429688 -0.030029297 0.296875 -0.27539062 -0.12890625 -0.34375 -0.025024414 0.022216797 0.64453125 -0.1875 0.031982422 0.171875 0.2734375 0.083984375 -0.36523438 0.0048217773 0.34570312 -0.23730469 0.28710938 -0.31835938 -0.044433594 0.10107422 0.37890625 -0.2265625 0.19726562 -0.27929688 -0.09033203 0.31445312 -0.091308594
rainbow -0.022460938 0.043701172 0.0703125 0.28320312 -0.099609375 -0.3125 0.08203125 -0.25390625 -0.114746094 0.19726562 -0.064453125 0.02709961 0.05053711 0.13183594 -0.12060547 -0.07714844 0.11328125 0.16699219 -0.15429688 -0.38671875 -0.10888672 0.47851562 -0.021972656 -0.30078125 -0.068847656 0.024902344 -0.15527344 0.18359375 0.30078125 -0.32226562 -0.2109375 -0.046875 0.07128906 -0.023071289 -0.27929688 0.10595703 0.1171875 0.1328125 0.012451172 0.060791016 0.118652344 -0.041748047 0.16113281 -0.16796875 -0.15722656 0.021240234 0.10058594 0.0010528564 0.12792969 0.12695312 -0.19335938 0.0032043457 0.13769531 -0.15234375 0.05102539 -0.14355469 -0.07128906 -0.29296875 -0.034179688 -0.3515625 -0.07080078 0.23144531 -0.088378906 -0.03930664 0.17285156 -0.123535156 -0.037353516 0.09326172 -0.044677734 0.091308594 0.05517578 -0.19824219 -0.060302734 0.12890625 0.018188477 0.0115356445 -0.048339844 -0.080078125 -0.0068359375 0.30664062 0.17382812 -0.1640625 -0.19042969 -0.37109375 -0.0035247803 0.15527344 -0.109375 -0.119628906 0.06591797 -0.11376953 -0.19042969 0.060546875 -0.13671875 0.06738281 -0.23046875 0.24023438 0.12207031 -0.2578125 0.13671875 -0.025512695 -0.06982422 0.26171875 0.018310547 -0.27929688 -0.38867188 0.19335938 0.3125 0.07080078 0.021118164 -0.24511719 -0.07421875 0.0625 0.09277344 0.17285156 0.18261719 -0.11767578 -0.14453125 0.07128906 -0.08105469 -0.118652344 0.09082031 -0.083984375 -0.045166016 -0.119140625 0.067871094 0.044433594 0.11621094 0.23730469 -0.007537842 0.11816406 -0.22949219 0.19726562 0.01373291 0.12402344 0.0018615723 0.033691406 -0.083984375 0.025634766 0.27929688 0.11425781 -0.25585938 -0.16308594 -0.14746094 0.09814453 0.3515625 0.13476562 -0.17285156 -0.099609375 -0.15722656 -0.045654297 0.076660156 0.039794922 -0.4765625 -0.030639648 0.114746094 -0.13964844 0.05078125 -0.43945312 -0.053710938 0.026000977 -0.10595703 -0.103515625 0.3359375 -0.09375 -0.07763672 0.0072021484 0.053955078 -0.19042969 -0.421875 0.10107422 -0.17773438 0.01940918 -0.2734375 0.107910156 -0.119628906 0.01550293 -0.032958984 -0.125 0.119140625 0.03955078 -0.21777344 -0.28710938 -0.020263672 -0.07080078 -0.25195312 -0.44726562 0.04711914 0.084472656 -0.22363281 0.103515625 0.34765625 -0.22949219 -0.27734375 -0.12597656 -0.14746094 0.24316406 -0.11621094 0.07861328 -0.1328125 0.114746094 0.15039062 -0.1640625 0.021240234 -0.17382812 -0.09375 -0.007659912 0.005554199 0.0058288574 -0.16796875 -0.07128906 -0.41601562 -0.09277344 -0.14355469 -0.21679688 0.06689453 -0.0390625 0.14550781 0.067871094 -0.25976562 0.41796875 0.16796875 -0.13964844 0.06982422 0.091308594 -0.296875 0.17089844 -0.0087890625 0.15039062 -0.023803711 0.0037231445 0.02758789 0.16210938 -0.037597656 -0.17578125 0.071777344 -0.11425781 0.06201172 -0.05444336 0.2734375 0.15332031 0.003036499 -0.045166016 0.11816406 -0.0044555664 -0.041015625 -0.043701172 0.010070801 -0.10205078 -0.0069885254 0.115234375 -0.27734375 -0.11669922 0.19628906 0.29882812 0.33398438 -0.31640625 0.002105713 -0.11328125 0.13183594 0.010986328 -0.17871094 0.021484375 -0.021362305 -0.099121094 0.087890625 -0.07763672 0.021850586 0.35546875 -0.1875 0.13671875 0.08154297 0.026123047 0.04321289 0.20214844 0.31835938 0.24414062 -0.3046875 -0.12060547 -0.016845703 0.328125 0.026123047 0.21582031 -0.12597656 0.11328125 -0.13574219 0.068359375 0.16601562 -0.06347656 -0.15820312 -0.20996094 0.20703125 0.05883789 -0.27539062 -0.3046875 0.012573242 -0.08154297 0.071777344 -0.31445312 0.18457031 -0.20996094
iles -0.10888672 0.0039978027 -0.045166016 0.13769531 0.08691406 0.04296875 -0.17871094 -0.1953125 -0.13574219 0.022094727 0.03564453 -0.11279297 0.048339844 -0.08300781 0.1015625 0.041992188 0.010498047 0.104003906 -0.06298828 -0.01586914 -0.20410156 0.01574707 0.1953125 0.008728027 0.083984375 -0.06640625 -0.07861328 0.10449219 0.15332031 -0.17578125 -0.140625 -0.080566406 -0.017700195 -0.00982666 -0.16113281 -0.040771484 -0.16699219 0.13378906 -0.13671875 0.029418945 -0.15917969 0.06689453 0.00024032593 0.09716797 -0.095214844 -0.109375 -0.08154297 -0.027709961 -0.009338379 0.14257812 -0.083984375 0.119628906 0.15234375 0.05517578 -0.125 -0.00982666 -0.026245117 0.009033203 -0.17089844 -0.16699219 0.01171875 -0.20507812 -0.078125 -0.111328125 0.06982422 -0.16796875 -0.15917969 -0.171875 0.087402344 0.09716797 0.04711914 0.03540039 0.060791016 -0.15722656 0.0014266968 0.018920898 -0.08935547 -0.21582031 -0.05126953 -0.16699219 -0.09765625 -0.015319824 0.043701172 -0.02355957 0.05834961 0.019897461 0.02355957 0.1328125 0.15429688 0.13671875 -0.067871094 -0.103515625 0.008056641 0.0029907227 -0.109375 -0.0011749268 -0.026733398 -0.15527344 0.17871094 -0.0859375 -0.020874023 0.0115356445 -0.03149414 0.07763672 0.018676758 0.029663086 0.078125 0.044677734 -0.019165039 0.01928711 -0.15527344 0.016967773 0.115722656 -0.11669922 -0.05102539 0.041748047 -0.01586914 0.06347656 -0.048583984 -0.03173828 -0.060791016 0.04638672 0.16601562 -0.022827148 0.21386719 0.07519531 -0.12597656 -0.011169434 0.096191406 0.18554688 -0.140625 0.111328125 0.107910156 0.03515625 -0.05126953 -0.021484375 -0.056396484 0.032714844 0.072753906 0.16894531 0.07910156 -0.079589844 0.095703125 -0.0023498535 0.009216309 -0.029174805 0.022338867 0.28515625 -0.15527344 -0.099609375 -0.080566406 -0.12109375 0.041992188 -0.016113281 -0.095703125 -0.14550781 0.13085938 0.171875 -0.11279297 -0.037841797 0.0050354004 0.103027344 0.045410156 0.034179688 0.031982422 0.21191406 0.119628906 -0.019165039 -0.06640625 0.08251953 -0.017822266 0.061767578 -0.11621094 -0.08154297 0.017333984 0.12011719 0.036376953 -0.08300781 0.07080078 -0.0625 0.037841797 0.031982422 -0.006866455 0.036621094 -0.15234375 -0.08935547 0.099121094 -0.012145996 -0.033203125 -0.005340576 -0.0024414062 0.076660156 0.07080078 0.09277344 0.03955078 0.02734375 0.037597656 -0.014038086 0.1328125 0.14550781 0.015991211 0.021240234 -0.19140625 -0.1875 -0.06933594 0.1484375 0.019897461 0.16992188 -0.07324219 0.10449219 -0.048583984 -0.07080078 -0.14453125 0.049072266 0.044677734 -0.023803711 -0.033203125 -0.08935547 0.07910156 -0.057373047 -0.020751953 0.09033203 -0.083984375 0.09863281 -0.071777344 -0.01977539 0.007293701 0.053955078 0.057861328 -0.10595703 -0.01953125 0.07421875 -0.06640625 -0.0546875 -0.02758789 -0.018188477 -0.030029297 0.079589844 0.10205078 -0.045898438 0.056640625 0.12597656 0.18554688 0.18945312 0.00010251999 0.029663086 -0.15429688 0.12158203 0.15917969 0.002456665 0.07519531 0.10058594 0.084472656 0.100097656 0.111816406 -0.044677734 -0.04272461 -0.045654297 0.08642578 -0.041503906 0.1171875 0.049316406 0.05517578 -0.1796875 0.083984375 -0.10498047 0.025756836 0.052978516 0.06738281 -0.03564453 -0.13964844 -0.06591797 0.09716797 0.026733398 -0.026611328 0.08984375 -0.04321289 -0.15527344 -0.15820312 0.095703125 -0.12695312 -0.14746094 0.0054626465 0.014526367 -0.049316406 0.0017318726 -0.17089844 -0.029541016 -0.033203125 0.12597656 0.0017318726 -0.048828125 -0.045654297 0.078125 -0.09814453 -0.15429688 -0.018554688 -0.06225586 -0.119628906 0.09472656
broadcastings 0.045410156 -0.10205078 0.034179688 0.049560547 -0.060302734 0.11767578 0.012329102 0.0057678223 -0.060791016 -0.08496094 -0.06738281 0.015136719 -0.16796875 0.030029297 -0.057128906 0.030761719 -0.011779785 0.045654297 -0.10058594 -0.0390625 0.12207031 0.02758789 -0.04736328 0.1171875 -0.016845703 0.04321289 -0.111816406 0.05493164 0.04345703 0.057373047 0.01184082 -0.1796875 -0.11230469 0.011352539 -0.042236328 -0.09472656 -0.063964844 0.02709961 0.083984375 -0.05810547 0.10107422 0.037353516 0.11621094 0.12207031 -0.06738281 0.1171875 -0.118652344 -0.037353516 -0.18164062 -0.08642578 -0.034423828 -0.088378906 0.045898438 0.06738281 -0.03881836 0.05419922 -0.15820312 -0.030395508 -0.0010910034 0.028320312 0.037109375 -0.016357422 -0.10644531 0.033447266 0.020385742 0.15527344 0.041259766 0.06982422 0.0625 0.052001953 -0.12890625 0.05810547 0.118652344 -0.025756836 -0.0026855469 -0.14648438 0.025756836 -0.0063476562 0.026123047 0.0029144287 0.036376953 0.048339844 0.13183594 0.028686523 -0.05078125 -0.18457031 -0.01977539 -0.016723633 -0.013122559 0.171875 -0.11425781 -0.09423828 -0.078125 -0.11621094 0.036376953 -0.024169922 0.104003906 -0.12597656 0.13183594 0.12158203 0.004852295 0.13085938 -0.091308594 -0.012817383 -0.02709961 0.14550781 0.011108398 -0.06347656 0.06298828 -0.061035156 -0.110839844 0.03125 0.005645752 -0.11816406 -0.07373047 -0.044677734 -0.16210938 -0.037353516 0.06689453 0.012878418 0.008850098 0.060791016 -0.06982422 0.050048828 -0.018432617 -0.051757812 -0.014709473 0.11279297 -0.0063171387 -0.11816406 -0.013183594 0.1171875 0.0056152344 -0.13085938 -0.0076904297 0.1015625 0.040527344 -0.11816406 0.16308594 -0.109375 0.10058594 0.005126953 0.06225586 0.22460938 0.15332031 -0.114746094 0.064453125 -0.044921875 0.022705078 0.057861328 0.03857422 0.1328125 -0.07910156 -0.21777344 -0.014892578 -0.20214844 -0.18164062 -0.087402344 0.010925293 -0.0625 -0.16992188 0.15527344 -0.23144531 0.11230469 -0.010986328 0.012390137 -0.0053100586 -0.07324219 -0.017456055 -0.06689453 0.037597656 -0.0134887695 0.125 -0.041259766 -0.026123047 0.016479492 -0.12060547 -0.19042969 -0.07421875 -0.13671875 -0.083984375 -0.041259766 -0.15429688 -0.1484375 0.1328125 0.088378906 -0.10205078 -0.12695312 0.060302734 0.047607422 -0.1484375 0.026855469 -0.02368164 0.014526367 0.0069885254 0.052734375 -0.14257812 0.07861328 0.13183594 0.036865234 0.031982422 0.13574219 -0.009216309 0.032714844 -0.07910156 -0.0859375 -0.037841797 0.09472656 -0.13085938 0.18066406 0.03100586 -0.008422852 -0.028930664 0.040039062 0.09863281 -0.01940918 0.079589844 -0.03540039 -0.20117188 -0.15039062 0.087890625 -0.017944336 0.018798828 -0.07128906 -0.1796875 -0.0126953125 0.019165039 0.1328125 0.083984375 -0.12890625 0.06298828 -0.123535156 -0.0625 0.08154297 0.14941406 0.052001953 0.05493164 0.111328125 0.06933594 -0.02368164 0.07128906 -0.08935547 -0.012023926 0.051757812 0.10449219 0.03125 0.002960205 0.09765625 -0.12060547 -0.020629883 0.18457031 0.080566406 -0.061279297 0.04711914 -0.0625 -0.037597656 -0.030761719 -0.048583984 -0.07470703 -0.05126953 -0.044189453 -0.018432617 0.18066406 0.02331543 0.06689453 0.1875 -0.068847656 -0.055419922 -0.014343262 0.0390625 -0.07470703 0.041015625 0.072753906 -0.08691406 0.080566406 -0.048828125 -0.026000977 0.091308594 0.03881836 0.059326172 -0.13476562 0.0234375 0.11035156 -0.007537842 0.037841797 0.12402344 0.10107422 0.03857422 -0.053710938 0.1875 0.04321289 -0.0068969727 -0.014709473 -0.06591797 0.01586914 -0.12792969 -0.0859375 0.056640625 -0.087402344 0.032226562
finitely -0.013244629 0.048583984 0.036376953 0.118652344 -0.12402344 -0.033691406 -0.10644531 -0.072753906 0.087402344 0.02734375 -0.10498047 -0.10058594 -0.063964844 0.07128906 0.013977051 0.17285156 0.10595703 0.11816406 -0.053710938 -0.11425781 -0.049804688 -0.026733398 0.01953125 0.111328125 0.041992188 -0.055419922 -0.15820312 -0.045166016 0.05493164 -0.026367188 -0.123535156 0.0001039505 0.0023040771 0.025756836 -0.08544922 -0.0546875 0.13085938 0.1484375 0.055419922 -0.017333984 0.19335938 0.16699219 0.12890625 0.05493164 0.06201172 -0.016235352 0.099121094 -0.029907227 -0.12890625 0.07910156 -0.0062561035 -0.056152344 -0.17382812 -0.19238281 0.08496094 0.05810547 0.068359375 0.008911133 -0.0002040863 0.018188477 -0.11669922 -0.049316406 -0.15917969 -0.029418945 0.026977539 -0.11669922 -0.032714844 0.10839844 -0.005706787 0.075683594 0.07080078 0.125 0.09667969 -0.15820312 -0.06982422 -0.020751953 0.07763672 0.014831543 -0.08154297 0.038085938 -0.056640625 0.078125 0.007293701 -0.075683594 0.08251953 0.076660156 0.0023498535 0.026977539 -0.00680542 0.063964844 0.0099487305 0.049804688 -0.06738281 0.12988281 0.025268555 -0.02331543 0.05493164 -0.15722656 0.11328125 0.031982422 -0.10253906 0.03173828 -0.12158203 -0.025146484 -0.036376953 -0.046875 -0.15234375 0.12792969 0.05517578 -0.013305664 -0.04663086 -0.030395508 0.049316406 0.011169434 0.08544922 0.072753906 -0.09375 -0.04272461 0.04296875 -0.18164062 -0.076171875 -0.045166016 0.010986328 -0.04736328 0.033935547 0.080566406 -0.12597656 0.076660156 -0.05102539 -0.011413574 0.09277344 0.08154297 0.028198242 0.008178711 0.11279297 0.06591797 0.04321289 0.096191406 -0.01373291 -0.0126953125 0.14257812 -0.125 -0.17675781 0.10546875 0.05053711 0.027832031 0.032958984 0.007507324 -0.15527344 0.034423828 -0.020141602 -0.13574219 -0.014099121 0.12792969 -0.080566406 0.037353516 -0.07080078 0.10253906 -0.076171875 -0.009216309 -0.06591797 0.1484375 -0.059326172 0.011291504 -0.019165039 -0.140625 -0.005554199 0.024169922 -0.12988281 -0.025756836 -0.15625 -0.12792969 -0.1328125 0.05859375 0.08642578 0.072265625 -0.007232666 -0.13671875 0.061523438 -0.12792969 -0.0390625 -0.071777344 -0.12695312 0.122558594 0.017211914 -0.09033203 -0.059570312 0.10449219 0.041015625 0.006134033 -0.08105469 -0.125 0.060302734 -0.10986328 -0.13867188 -0.092285156 -0.038330078 0.0011978149 0.064941406 -0.018676758 0.080566406 0.15429688 -0.20898438 0.005004883 -0.00970459 0.013183594 -0.020996094 -0.12890625 -0.08935547 0.029907227 0.025146484 0.0015945435 -0.044677734 0.055908203 -0.15917969 0.076660156 0.063964844 -0.008850098 -0.051513672 0.07519531 -0.0154418945 0.08251953 0.023925781 0.028320312 -0.12597656 0.091308594 -0.024291992 -0.083984375 0.171875 0.083496094 -0.09277344 -0.07861328 0.037353516 -0.037353516 0.19921875 -0.053955078 -0.018920898 0.064941406 0.016357422 0.007598877 0.020996094 0.037841797 0.079589844 0.032714844 -0.0029449463 -0.080078125 -0.029663086 0.14160156 -0.06640625 0.123535156 -0.07324219 0.119140625 -0.050048828 0.10107422 -0.063964844 -0.09277344 -0.10986328 0.017578125 0.08105469 0.008178711 0.008239746 0.032958984 -0.03955078 -0.10107422 -0.016357422 0.025878906 -0.008239746 -0.18164062 -0.11328125 -0.2109375 -0.028076172 0.007873535 -0.014587402 0.040527344 0.005340576 0.014160156 -0.063964844 -0.10058594 -0.004760742 0.12988281 -0.15332031 0.042236328 -0.011047363 -0.055664062 0.037841797 -0.07861328 0.06738281 -0.029907227 0.036865234 0.072753906 -0.119628906 0.16601562 -0.07470703 0.04663086 0.033203125 -0.21289062 0.057617188 0.04638672 -0.068359375 0.02746582
hamper -0.040527344 0.19140625 -0.18945312 -0.07080078 0.03515625 0.31835938 0.19726562 0.20410156 -0.011962891 -0.057617188 0.031982422 -0.3203125 0.3125 -0.056152344 0.083984375 0.08642578 0.28320312 -0.036132812 -0.079589844 -0.31835938 0.025634766 -0.23242188 -0.026000977 0.10107422 -0.05419922 -0.034423828 -0.25195312 -0.13183594 0.24804688 0.1484375 0.14257812 -0.13378906 0.21191406 -0.050048828 -0.029663086 -0.061035156 0.10498047 0.06982422 0.12890625 0.04711914 0.103027344 0.25 0.072753906 0.08154297 -0.20703125 -0.13574219 -0.12109375 0.0625 0.20214844 0.15722656 0.140625 0.10107422 0.19042969 -0.087402344 -0.088378906 -0.00982666 -0.19726562 -0.20996094 0.13964844 -0.11279297 0.008239746 -0.08154297 0.100097656 0.09814453 0.055664062 0.12597656 0.007446289 0.21191406 -0.07080078 0.083984375 -0.17578125 0.007232666 0.17089844 0.1015625 -0.18652344 -0.2578125 0.12060547 0.072753906 0.059814453 -0.021362305 -0.017578125 -0.140625 -0.12207031 -0.14746094 -0.021972656 0.2265625 0.021606445 0.13769531 -0.34765625 0.29296875 0.3828125 -0.328125 0.13671875 -0.31054688 0.29882812 -0.18652344 0.09765625 -0.008728027 -0.02722168 0.23144531 0.10107422 0.12060547 0.15527344 0.12988281 -0.053710938 0.07763672 0.06982422 -0.25585938 -0.09326172 0.026245117 -0.111328125 -0.16601562 0.021362305 -0.25976562 0.111816406 0.0018463135 -0.09423828 0.055419922 -0.05908203 0.20703125 0.16894531 0.29296875 0.041503906 -0.0052490234 -0.21191406 -0.19140625 -0.023925781 -0.17871094 -0.18359375 -0.24121094 0.28320312 0.056640625 0.07763672 0.15625 -0.14453125 -0.030517578 -0.0076904297 0.1484375 0.0625 -0.16796875 0.027709961 -0.37695312 0.17480469 0.3203125 -0.115722656 -0.34960938 0.05908203 -0.15039062 -0.061767578 0.016601562 0.23730469 0.07861328 0.025878906 0.22851562 0.3984375 -0.080078125 -2.6077032e-06 -0.06542969 -0.49023438 0.14355469 0.11328125 -0.265625 -0.048339844 -0.16699219 0.3671875 -0.08935547 0.06640625 0.014221191 0.09814453 -0.038085938 -0.010986328 -0.21875 -0.23828125 -0.22753906 0.13964844 -0.16894531 0.27148438 0.02331543 -0.21191406 0.33789062 -0.3359375 0.0009460449 0.22753906 0.01965332 -0.43945312 0.23828125 0.23632812 0.055908203 -0.23632812 0.13769531 -0.09326172 -0.16210938 0.18359375 0.30664062 -0.01373291 0.21679688 -0.10107422 -0.22265625 0.095214844 -0.22558594 -0.09423828 -0.08203125 -0.16894531 -0.13574219 -0.053955078 0.061767578 0.04638672 0.15234375 -0.08203125 -0.087890625 -0.10644531 -0.15722656 -0.040283203 0.1953125 0.24121094 -0.33007812 0.07519531 -0.048095703 -0.37304688 0.05810547 0.08886719 -0.083496094 -0.18554688 0.026123047 0.07519531 -0.09082031 0.020019531 -0.44140625 0.27148438 0.09375 0.21191406 0.24804688 -0.0076904297 0.16113281 0.01940918 -0.15234375 0.05444336 -0.515625 0.40429688 -0.07763672 -0.19628906 0.37304688 0.20507812 0.009033203 0.0390625 -0.2109375 -0.41601562 -0.061279297 0.013916016 -0.010314941 0.16503906 0.03881836 0.21484375 0.19726562 -0.21191406 -0.11816406 0.20507812 0.25195312 -0.076171875 -0.037109375 -0.1484375 0.10058594 -0.23925781 0.15917969 0.25 0.17675781 -0.38476562 -0.16503906 0.07470703 -0.16210938 -0.032226562 0.34960938 0.076660156 -0.083984375 0.041503906 -0.40429688 -0.028930664 -0.16992188 0.12451172 -0.005493164 0.06982422 0.24707031 0.12988281 0.296875 -0.103027344 0.20117188 -0.16796875 0.17773438 -0.018920898 -0.13964844 0.14746094 0.091796875 -0.091308594 0.013244629 -0.009277344 -0.35546875 -0.35742188 -0.044189453 0.22265625 0.021118164
fictionalizes 0.2578125 -0.057861328 0.031982422 0.030151367 0.025634766 0.10058594 -0.05859375 0.24902344 -0.021118164 -0.125 0.067871094 -0.0703125 -0.0138549805 0.22949219 -0.018920898 0.34375 -0.20214844 0.19140625 0.107910156 -0.09667969 -0.22949219 0.13964844 0.045410156 -0.07519531 0.056884766 -0.12792969 0.10107422 0.21875 -0.18164062 0.07421875 -0.059326172 -0.19824219 -0.19628906 0.16015625 -0.13183594 0.11230469 0.123535156 -0.08105469 0.03564453 -0.023803711 0.09375 0.06640625 -0.14550781 0.16992188 -0.041015625 -0.020263672 -0.07080078 -0.13964844 0.33203125 -0.15332031 -0.063964844 -0.056884766 0.08251953 -0.21191406 0.040283203 0.076660156 -0.23535156 -0.25390625 -0.026000977 -0.083984375 0.12695312 0.234375 0.22949219 -0.14746094 -0.053710938 0.020141602 -0.010925293 0.13964844 0.100097656 -0.110839844 0.18847656 0.080078125 0.033935547 -0.21875 -0.019897461 -0.0390625 0.203125 0.21484375 0.12890625 -0.018798828 0.15332031 0.24902344 -0.013305664 -0.13964844 0.043701172 -0.08691406 -0.119628906 0.052734375 -0.103027344 -0.0001487732 0.068847656 -0.06933594 0.28710938 0.10205078 -0.018066406 -0.026733398 0.0061035156 -0.11376953 -0.040527344 -0.1328125 0.055419922 0.16503906 0.111328125 -0.23242188 0.140625 -0.37890625 -0.15917969 -0.03149414 -0.22363281 0.0115356445 -0.072265625 0.18945312 0.34375 -0.17871094 0.035888672 -0.10058594 0.033203125 0.17089844 0.33203125 0.37304688 -0.022949219 -0.048583984 0.14257812 -0.16015625 -0.015625 -0.20507812 -0.13085938 0.17675781 -0.28515625 0.0859375 -0.18554688 -0.12597656 -0.2265625 0.064941406 0.11767578 0.14550781 -0.04736328 -0.17382812 -0.2734375 -0.20898438 0.017700195 0.0077209473 0.029663086 -0.06640625 -0.14941406 0.024169922 0.03491211 0.0078125 -0.13085938 -0.08935547 0.15917969 -0.119140625 -0.007751465 0.21679688 -0.20117188 -0.103515625 0.056396484 0.19628906 0.036132812 -0.1875 0.096191406 0.037597656 0.09765625 -0.08496094 -0.27734375 0.18164062 0.27929688 -0.08105469 -0.12890625 0.16992188 0.030273438 -0.22460938 0.014831543 -0.421875 0.26757812 0.12402344 -0.056152344 -0.033203125 0.09033203 0.003692627 0.2890625 0.00982666 -0.20605469 -0.1171875 -0.021850586 -0.061035156 0.076660156 0.0065612793 -0.19921875 0.30664062 0.12695312 0.08154297 0.16601562 0.21777344 -0.05102539 0.27148438 0.05419922 0.123046875 0.125 0.07128906 0.328125 -0.24316406 0.10888672 0.049316406 0.104003906 0.020751953 -0.07373047 0.21972656 -0.515625 -0.12402344 -0.091308594 0.22167969 0.32421875 -0.042236328 -0.119628906 -0.007537842 0.095214844 0.03100586 0.22363281 -0.084472656 0.140625 0.09423828 -0.04711914 0.10449219 0.13183594 0.16113281 -0.048583984 0.10058594 -0.21875 -0.048339844 0.111328125 0.03125 0.18652344 0.20996094 0.06591797 -0.24609375 -0.05419922 0.203125 -0.18554688 -0.033935547 0.32226562 -0.12011719 0.027954102 0.11767578 -0.3984375 0.076171875 -0.1875 0.43164062 -0.083984375 -0.1328125 -0.19628906 -0.078125 0.140625 0.021728516 -0.057128906 -0.115722656 -0.15136719 -0.18554688 -0.016479492 0.012268066 -0.26757812 0.2265625 -0.019165039 -0.15820312 0.13671875 0.37890625 -0.16503906 -0.13574219 -0.15429688 -0.040771484 -0.1640625 0.056152344 -0.25390625 0.06591797 0.15917969 0.028198242 0.00050735474 0.083984375 -0.20605469 0.09033203 -0.087890625 -0.30078125 -0.078125 -0.084472656 -0.01159668 -0.06298828 -0.3984375 0.15039062 -0.060791016 -0.115722656 -0.25585938 -0.01361084 -0.35742188 0.3359375 -0.07421875 -0.21289062 0.08935547 -0.08935547 0.15429688 0.30078125
farmhand 0.13671875 0.034179688 0.057861328 0.044921875 0.064941406 0.19042969 -0.15722656 -0.026855469 0.09277344 -0.107421875 0.609375 -0.22070312 -0.45703125 -0.12890625 -0.24707031 -0.009460449 -0.056396484 0.18554688 -0.027832031 -0.14941406 0.096191406 0.24121094 -0.052001953 -0.20019531 0.16015625 -0.26171875 -0.24804688 0.27539062 -0.21191406 0.2890625 0.17480469 0.18945312 -0.22753906 0.28515625 -0.265625 0.19628906 0.29492188 0.061279297 0.23144531 0.07080078 0.31835938 -0.36132812 0.3203125 0.14160156 0.20898438 -0.16796875 -0.30273438 0.1171875 0.29296875 -0.05029297 -0.014038086 -0.037353516 0.13769531 -0.18457031 -0.31835938 -0.3828125 0.17578125 0.07519531 -0.25585938 0.028930664 -0.041748047 0.051513672 0.020751953 0.09716797 0.05444336 -0.01928711 -0.08251953 -0.095214844 0.07080078 0.33984375 0.24511719 0.32226562 -0.25 -0.118652344 0.13769531 -0.07470703 -0.1015625 -0.21777344 0.021850586 -0.18261719 0.18457031 0.24902344 -0.15332031 0.07714844 -0.014221191 0.095703125 -0.48046875 -0.05053711 0.006286621 -0.06933594 -0.43554688 0.017333984 -0.43945312 0.33203125 0.07128906 0.21191406 0.14257812 0.12890625 0.0016021729 -0.25195312 0.17675781 0.046875 -0.029907227 -0.16210938 0.47460938 -0.30664062 -0.30664062 0.34179688 -0.27734375 0.013793945 0.36523438 -0.03125 -0.08154297 0.00010728836 0.064453125 0.4140625 0.029174805 0.22265625 0.04663086 0.54296875 0.35351562 0.19433594 -0.3671875 -0.48046875 -0.21484375 -0.27734375 -0.26171875 -0.0005569458 -0.0071411133 -0.12597656 -0.20507812 -0.21777344 0.048583984 0.22363281 -0.1640625 0.020751953 -0.21484375 0.005584717 -0.06347656 0.21191406 0.026123047 0.14648438 0.114746094 0.025512695 -0.19042969 -0.0107421875 0.08886719 0.39648438 0.012939453 0.015197754 0.31640625 -0.203125 0.15917969 0.09716797 -0.17675781 0.05102539 -0.10498047 0.018676758 0.099609375 -0.25 -0.23535156 0.1328125 0.2578125 0.049804688 0.10839844 0.046875 0.068359375 -0.32421875 0.28710938 -0.15527344 0.091308594 -0.119140625 -0.11816406 -0.24609375 0.0046691895 0.40429688 0.27539062 -0.016479492 0.3828125 0.359375 -0.29492188 0.18359375 0.2578125 -0.17480469 -0.14648438 0.09814453 -0.15136719 -0.25976562 -0.033447266 -0.13476562 -0.16210938 -0.01977539 0.21289062 0.071777344 0.44335938 0.0703125 -0.14941406 -0.088378906 -0.0703125 -0.107421875 0.20703125 -0.34375 0.109375 -0.12695312 0.13378906 -0.22949219 -0.027832031 -0.020996094 0.026733398 -0.2890625 0.043945312 -0.48242188 0.08203125 0.080566406 0.092285156 0.21484375 -0.42773438 -0.17382812 0.06201172 0.056152344 0.50390625 0.15332031 0.064941406 0.040283203 0.3671875 0.10644531 -0.013366699 0.110839844 -0.0030517578 -0.16308594 0.32617188 -0.28515625 0.09082031 0.23144531 -0.21191406 -0.11621094 -0.203125 -0.3203125 -0.19238281 -0.14746094 -0.01928711 -0.1953125 -0.049804688 -0.07763672 -0.083984375 0.08886719 -0.04711914 0.009399414 -0.040039062 -0.006286621 -0.083496094 0.07421875 0.31054688 0.075683594 -0.15332031 0.12402344 -0.023803711 -0.20605469 -0.5859375 -0.33984375 0.095214844 -0.015625 -0.11328125 0.11767578 -0.08886719 0.27929688 -0.080078125 -0.03112793 0.049316406 0.015563965 0.19140625 -0.028808594 -0.055419922 -0.03564453 -0.047851562 -0.12890625 -0.48632812 -0.052734375 -0.10986328 0.09423828 0.328125 -0.15722656 0.45703125 0.45703125 -0.19628906 0.076660156 -0.28320312 0.16699219 0.095703125 0.27148438 0.17480469 0.16113281 -0.20410156 -0.234375 -0.08544922 0.068847656 0.03540039 -0.18652344 0.27539062 -0.12158203
outrigger -0.08300781 -0.22460938 -0.27734375 -0.29101562 0.100097656 -0.28710938 0.32617188 -0.25390625 -0.041748047 0.20996094 0.1484375 -0.13964844 0.02746582 -0.01586914 0.14941406 0.4140625 -0.25195312 0.09375 0.0018692017 0.31445312 0.29296875 0.22851562 -0.1484375 -0.005004883 0.09472656 -0.4375 -0.20117188 0.46679688 0.40625 -0.31054688 0.107910156 0.29882812 0.17285156 -0.037597656 0.5390625 -0.071777344 0.052734375 0.32226562 -0.026367188 -0.21875 -0.07470703 0.3984375 0.25390625 0.14746094 -0.107910156 0.037597656 0.028808594 0.18359375 0.4609375 0.029785156 0.10253906 -0.21191406 0.091796875 -0.35351562 0.22167969 0.24023438 0.15136719 0.09423828 0.08691406 -0.16601562 -0.110839844 -0.0390625 -0.07324219 -0.1484375 0.087402344 -0.296875 -0.08691406 0.012268066 -0.11425781 0.33007812 0.042236328 0.026367188 -0.048095703 -0.23144531 -0.23339844 -0.13085938 -0.15722656 -0.46484375 -0.114746094 -0.14648438 0.23730469 -0.0390625 -0.28125 -0.1953125 -0.037353516 0.009460449 -0.03540039 -0.13476562 -0.076171875 0.15136719 -0.123535156 0.30078125 0.07373047 0.26367188 0.015625 -0.09716797 0.31054688 -0.4140625 0.453125 -0.123535156 0.104003906 -0.15917969 0.30859375 -0.06738281 -0.17480469 0.32421875 0.0077819824 -0.15039062 0.32226562 0.23828125 -0.43945312 -0.27929688 0.34179688 -0.03857422 -0.26757812 -0.16210938 -0.05078125 0.110839844 -0.40039062 -0.14648438 0.072265625 -0.20117188 0.17382812 0.18457031 0.27148438 -0.1640625 -0.08203125 0.020874023 -0.087402344 0.41992188 0.1015625 -0.014953613 -0.32617188 -0.024047852 -0.15820312 -0.041748047 -0.08642578 -0.21289062 0.048339844 0.36328125 0.051757812 -0.18652344 -0.13183594 0.31445312 0.19824219 0.16308594 -0.31835938 0.20214844 0.100097656 0.06225586 0.25976562 -0.03881836 -0.17089844 0.1171875 0.061035156 -0.16894531 -0.1796875 -0.15527344 0.07470703 0.08496094 -0.087890625 -0.09375 0.032958984 0.025512695 0.03173828 -0.25195312 0.20996094 -0.048583984 -0.22753906 0.07714844 -0.13867188 -0.048095703 -0.119140625 -0.080566406 -0.033935547 -0.12109375 0.171875 -0.16503906 -0.021362305 0.19238281 -0.107421875 -0.18652344 0.07324219 0.068359375 0.091796875 -0.11328125 0.18554688 -0.22949219 0.19921875 -0.22070312 0.15820312 -0.17382812 0.10986328 -0.13769531 -0.1484375 -0.030273438 0.119140625 0.28320312 -0.064453125 -0.1484375 -0.09375 0.0073242188 0.095214844 -0.087890625 -0.11279297 -0.23828125 -0.07080078 -0.15332031 -0.016723633 0.2890625 -0.025512695 -0.06933594 -0.17578125 0.043701172 -0.06640625 -0.22558594 -0.20117188 0.037109375 -0.04663086 0.140625 0.052734375 0.234375 0.20019531 -0.15527344 -0.037353516 -0.06591797 0.09863281 0.45507812 0.20410156 0.1796875 -0.03955078 -0.0036621094 -0.3671875 -0.16699219 -0.12597656 0.18847656 0.30273438 0.06689453 0.22460938 0.13964844 0.09765625 -0.045410156 0.026489258 -0.096191406 -0.08300781 -0.047851562 -0.25976562 -0.22460938 0.016113281 -0.4140625 0.083496094 0.068847656 0.08984375 0.032470703 0.08203125 -0.4375 0.33007812 -0.24414062 -0.10449219 0.20410156 0.13769531 -0.099609375 -0.22753906 -0.26171875 -0.048339844 0.028808594 0.15527344 -0.17285156 -0.09472656 -0.106933594 -0.040527344 0.22851562 -0.13476562 0.15136719 0.19726562 -0.12207031 -0.1484375 -0.10253906 -0.016845703 0.3515625 -0.23828125 -0.17089844 -0.00982666 -0.33398438 0.23828125 -0.123535156 -0.004119873 0.092285156 -0.14160156 0.14648438 0.18359375 0.07470703 -0.0019836426 -0.14355469 0.055908203 -0.095214844 -0.099609375 -0.043701172 -0.092285156 0.036865234
